digraph Tree {
node [shape=box, fontname="helvetica"] ;
edge [fontname="helvetica"] ;
0 [label="price <= 426.5\nentropy = 0.391\nsamples = 24837\nvalue = [1910, 22927]"] ;
1 [label="price <= 345.5\nentropy = 0.615\nsamples = 4133\nvalue = [629, 3504]"] ;
0 -> 1 [labeldistance=2.5, labelangle=45, headlabel="True"] ;
2 [label="price <= 279.5\nentropy = 0.736\nsamples = 1472\nvalue = [305, 1167]"] ;
1 -> 2 ;
3 [label="channel <= 2.5\nentropy = 0.194\nsamples = 67\nvalue = [2, 65]"] ;
2 -> 3 ;
4 [label="entropy = 0.0\nsamples = 29\nvalue = [0, 29]"] ;
3 -> 4 ;
5 [label="channel <= 3.5\nentropy = 0.297\nsamples = 38\nvalue = [2, 36]"] ;
3 -> 5 ;
6 [label="product_type <= 4.5\nentropy = 0.619\nsamples = 13\nvalue = [2, 11]"] ;
5 -> 6 ;
7 [label="price <= 266.5\nentropy = 0.918\nsamples = 6\nvalue = [2, 4]"] ;
6 -> 7 ;
8 [label="price <= 261.5\nentropy = 1.0\nsamples = 4\nvalue = [2, 2]"] ;
7 -> 8 ;
9 [label="product_type <= 3.0\nentropy = 0.918\nsamples = 3\nvalue = [1, 2]"] ;
8 -> 9 ;
10 [label="entropy = 1.0\nsamples = 2\nvalue = [1, 1]"] ;
9 -> 10 ;
11 [label="entropy = 0.0\nsamples = 1\nvalue = [0, 1]"] ;
9 -> 11 ;
12 [label="entropy = 0.0\nsamples = 1\nvalue = [1, 0]"] ;
8 -> 12 ;
13 [label="entropy = 0.0\nsamples = 2\nvalue = [0, 2]"] ;
7 -> 13 ;
14 [label="entropy = 0.0\nsamples = 7\nvalue = [0, 7]"] ;
6 -> 14 ;
15 [label="entropy = 0.0\nsamples = 25\nvalue = [0, 25]"] ;
5 -> 15 ;
16 [label="price <= 298.5\nentropy = 0.752\nsamples = 1405\nvalue = [303, 1102]"] ;
2 -> 16 ;
17 [label="price <= 296.0\nentropy = 0.899\nsamples = 286\nvalue = [90, 196]"] ;
16 -> 17 ;
18 [label="channel <= 6.5\nentropy = 0.876\nsamples = 274\nvalue = [81.0, 193.0]"] ;
17 -> 18 ;
19 [label="product_type <= 2.5\nentropy = 0.889\nsamples = 264\nvalue = [81, 183]"] ;
18 -> 19 ;
20 [label="age_group <= 1.5\nentropy = 0.918\nsamples = 3\nvalue = [2, 1]"] ;
19 -> 20 ;
21 [label="entropy = 0.0\nsamples = 1\nvalue = [0, 1]"] ;
20 -> 21 ;
22 [label="entropy = 0.0\nsamples = 2\nvalue = [2, 0]"] ;
20 -> 22 ;
23 [label="price <= 281.5\nentropy = 0.885\nsamples = 261\nvalue = [79, 182]"] ;
19 -> 23 ;
24 [label="age_group <= 1.5\nentropy = 0.469\nsamples = 10\nvalue = [1, 9]"] ;
23 -> 24 ;
25 [label="channel <= 2.5\nentropy = 0.811\nsamples = 4\nvalue = [1, 3]"] ;
24 -> 25 ;
26 [label="entropy = 0.918\nsamples = 3\nvalue = [1, 2]"] ;
25 -> 26 ;
27 [label="entropy = 0.0\nsamples = 1\nvalue = [0, 1]"] ;
25 -> 27 ;
28 [label="entropy = 0.0\nsamples = 6\nvalue = [0, 6]"] ;
24 -> 28 ;
29 [label="price <= 288.5\nentropy = 0.894\nsamples = 251\nvalue = [78, 173]"] ;
23 -> 29 ;
30 [label="age_group <= 1.5\nentropy = 0.954\nsamples = 8\nvalue = [5, 3]"] ;
29 -> 30 ;
31 [label="entropy = 0.0\nsamples = 2\nvalue = [0, 2]"] ;
30 -> 31 ;
32 [label="entropy = 0.65\nsamples = 6\nvalue = [5, 1]"] ;
30 -> 32 ;
33 [label="product_type <= 4.5\nentropy = 0.882\nsamples = 243\nvalue = [73, 170]"] ;
29 -> 33 ;
34 [label="entropy = 0.891\nsamples = 224\nvalue = [69, 155]"] ;
33 -> 34 ;
35 [label="entropy = 0.742\nsamples = 19\nvalue = [4, 15]"] ;
33 -> 35 ;
36 [label="entropy = 0.0\nsamples = 10\nvalue = [0, 10]"] ;
18 -> 36 ;
37 [label="channel <= 1.5\nentropy = 0.811\nsamples = 12\nvalue = [9, 3]"] ;
17 -> 37 ;
38 [label="entropy = 0.0\nsamples = 1\nvalue = [0, 1]"] ;
37 -> 38 ;
39 [label="product_type <= 4.5\nentropy = 0.684\nsamples = 11\nvalue = [9, 2]"] ;
37 -> 39 ;
40 [label="channel <= 2.5\nentropy = 1.0\nsamples = 2\nvalue = [1, 1]"] ;
39 -> 40 ;
41 [label="entropy = 0.0\nsamples = 1\nvalue = [0, 1]"] ;
40 -> 41 ;
42 [label="entropy = 0.0\nsamples = 1\nvalue = [1, 0]"] ;
40 -> 42 ;
43 [label="age_group <= 2.5\nentropy = 0.503\nsamples = 9\nvalue = [8, 1]"] ;
39 -> 43 ;
44 [label="entropy = 0.0\nsamples = 7\nvalue = [7, 0]"] ;
43 -> 44 ;
45 [label="price <= 297.5\nentropy = 1.0\nsamples = 2\nvalue = [1, 1]"] ;
43 -> 45 ;
46 [label="entropy = 0.0\nsamples = 1\nvalue = [1, 0]"] ;
45 -> 46 ;
47 [label="entropy = 0.0\nsamples = 1\nvalue = [0, 1]"] ;
45 -> 47 ;
48 [label="product_type <= 4.5\nentropy = 0.702\nsamples = 1119\nvalue = [213, 906]"] ;
16 -> 48 ;
49 [label="price <= 300.0\nentropy = 0.729\nsamples = 968\nvalue = [197, 771]"] ;
48 -> 49 ;
50 [label="channel <= 6.5\nentropy = 0.292\nsamples = 39\nvalue = [2, 37]"] ;
49 -> 50 ;
51 [label="age_group <= 2.5\nentropy = 0.179\nsamples = 37\nvalue = [1, 36]"] ;
50 -> 51 ;
52 [label="entropy = 0.0\nsamples = 29\nvalue = [0, 29]"] ;
51 -> 52 ;
53 [label="channel <= 2.5\nentropy = 0.544\nsamples = 8\nvalue = [1, 7]"] ;
51 -> 53 ;
54 [label="entropy = 0.0\nsamples = 2\nvalue = [0, 2]"] ;
53 -> 54 ;
55 [label="channel <= 4.0\nentropy = 0.65\nsamples = 6\nvalue = [1, 5]"] ;
53 -> 55 ;
56 [label="entropy = 0.811\nsamples = 4\nvalue = [1, 3]"] ;
55 -> 56 ;
57 [label="entropy = 0.0\nsamples = 2\nvalue = [0, 2]"] ;
55 -> 57 ;
58 [label="age_group <= 1.5\nentropy = 1.0\nsamples = 2\nvalue = [1, 1]"] ;
50 -> 58 ;
59 [label="entropy = 0.0\nsamples = 1\nvalue = [1, 0]"] ;
58 -> 59 ;
60 [label="entropy = 0.0\nsamples = 1\nvalue = [0, 1]"] ;
58 -> 60 ;
61 [label="price <= 334.0\nentropy = 0.741\nsamples = 929\nvalue = [195, 734]"] ;
49 -> 61 ;
62 [label="price <= 332.0\nentropy = 0.762\nsamples = 747\nvalue = [165, 582]"] ;
61 -> 62 ;
63 [label="price <= 328.5\nentropy = 0.719\nsamples = 715\nvalue = [142, 573]"] ;
62 -> 63 ;
64 [label="price <= 324.5\nentropy = 0.761\nsamples = 617\nvalue = [136.0, 481.0]"] ;
63 -> 64 ;
65 [label="entropy = 0.713\nsamples = 563\nvalue = [110, 453]"] ;
64 -> 65 ;
66 [label="entropy = 0.999\nsamples = 54\nvalue = [26, 28]"] ;
64 -> 66 ;
67 [label="channel <= 2.5\nentropy = 0.332\nsamples = 98\nvalue = [6, 92]"] ;
63 -> 67 ;
68 [label="entropy = 0.151\nsamples = 46\nvalue = [1, 45]"] ;
67 -> 68 ;
69 [label="entropy = 0.457\nsamples = 52\nvalue = [5, 47]"] ;
67 -> 69 ;
70 [label="channel <= 4.5\nentropy = 0.857\nsamples = 32\nvalue = [23, 9]"] ;
62 -> 70 ;
71 [label="channel <= 1.5\nentropy = 0.993\nsamples = 20\nvalue = [11, 9]"] ;
70 -> 71 ;
72 [label="entropy = 0.0\nsamples = 4\nvalue = [4, 0]"] ;
71 -> 72 ;
73 [label="entropy = 0.989\nsamples = 16\nvalue = [7, 9]"] ;
71 -> 73 ;
74 [label="entropy = 0.0\nsamples = 12\nvalue = [12, 0]"] ;
70 -> 74 ;
75 [label="price <= 344.5\nentropy = 0.646\nsamples = 182\nvalue = [30, 152]"] ;
61 -> 75 ;
76 [label="channel <= 3.5\nentropy = 0.323\nsamples = 68\nvalue = [4, 64]"] ;
75 -> 76 ;
77 [label="price <= 337.5\nentropy = 0.469\nsamples = 40\nvalue = [4, 36]"] ;
76 -> 77 ;
78 [label="entropy = 0.0\nsamples = 11\nvalue = [0, 11]"] ;
77 -> 78 ;
79 [label="entropy = 0.579\nsamples = 29\nvalue = [4, 25]"] ;
77 -> 79 ;
80 [label="entropy = 0.0\nsamples = 28\nvalue = [0, 28]"] ;
76 -> 80 ;
81 [label="channel <= 1.5\nentropy = 0.775\nsamples = 114\nvalue = [26, 88]"] ;
75 -> 81 ;
82 [label="entropy = 0.0\nsamples = 6\nvalue = [0, 6]"] ;
81 -> 82 ;
83 [label="channel <= 3.5\nentropy = 0.796\nsamples = 108\nvalue = [26, 82]"] ;
81 -> 83 ;
84 [label="entropy = 0.856\nsamples = 57\nvalue = [16, 41]"] ;
83 -> 84 ;
85 [label="entropy = 0.714\nsamples = 51\nvalue = [10, 41]"] ;
83 -> 85 ;
86 [label="price <= 335.5\nentropy = 0.488\nsamples = 151\nvalue = [16, 135]"] ;
48 -> 86 ;
87 [label="price <= 328.5\nentropy = 0.4\nsamples = 126\nvalue = [10, 116]"] ;
86 -> 87 ;
88 [label="price <= 326.5\nentropy = 0.539\nsamples = 73\nvalue = [9, 64]"] ;
87 -> 88 ;
89 [label="price <= 309.5\nentropy = 0.465\nsamples = 71\nvalue = [7.0, 64.0]"] ;
88 -> 89 ;
90 [label="price <= 304.0\nentropy = 0.637\nsamples = 31\nvalue = [5, 26]"] ;
89 -> 90 ;
91 [label="entropy = 0.491\nsamples = 28\nvalue = [3, 25]"] ;
90 -> 91 ;
92 [label="entropy = 0.918\nsamples = 3\nvalue = [2, 1]"] ;
90 -> 92 ;
93 [label="product_type <= 6.0\nentropy = 0.286\nsamples = 40\nvalue = [2, 38]"] ;
89 -> 93 ;
94 [label="entropy = 0.567\nsamples = 15\nvalue = [2, 13]"] ;
93 -> 94 ;
95 [label="entropy = 0.0\nsamples = 25\nvalue = [0, 25]"] ;
93 -> 95 ;
96 [label="entropy = 0.0\nsamples = 2\nvalue = [2, 0]"] ;
88 -> 96 ;
97 [label="gender <= 1.5\nentropy = 0.135\nsamples = 53\nvalue = [1, 52]"] ;
87 -> 97 ;
98 [label="entropy = 0.0\nsamples = 46\nvalue = [0, 46]"] ;
97 -> 98 ;
99 [label="channel <= 2.5\nentropy = 0.592\nsamples = 7\nvalue = [1, 6]"] ;
97 -> 99 ;
100 [label="age_group <= 1.5\nentropy = 0.918\nsamples = 3\nvalue = [1, 2]"] ;
99 -> 100 ;
101 [label="entropy = 0.0\nsamples = 1\nvalue = [0, 1]"] ;
100 -> 101 ;
102 [label="entropy = 1.0\nsamples = 2\nvalue = [1, 1]"] ;
100 -> 102 ;
103 [label="entropy = 0.0\nsamples = 4\nvalue = [0, 4]"] ;
99 -> 103 ;
104 [label="price <= 341.5\nentropy = 0.795\nsamples = 25\nvalue = [6, 19]"] ;
86 -> 104 ;
105 [label="channel <= 4.0\nentropy = 0.937\nsamples = 17\nvalue = [6, 11]"] ;
104 -> 105 ;
106 [label="channel <= 2.5\nentropy = 1.0\nsamples = 10\nvalue = [5, 5]"] ;
105 -> 106 ;
107 [label="channel <= 1.5\nentropy = 0.918\nsamples = 6\nvalue = [2, 4]"] ;
106 -> 107 ;
108 [label="entropy = 0.0\nsamples = 1\nvalue = [0, 1]"] ;
107 -> 108 ;
109 [label="entropy = 0.971\nsamples = 5\nvalue = [2, 3]"] ;
107 -> 109 ;
110 [label="age_group <= 2.5\nentropy = 0.811\nsamples = 4\nvalue = [3, 1]"] ;
106 -> 110 ;
111 [label="entropy = 0.0\nsamples = 2\nvalue = [2, 0]"] ;
110 -> 111 ;
112 [label="entropy = 1.0\nsamples = 2\nvalue = [1, 1]"] ;
110 -> 112 ;
113 [label="gender <= 1.5\nentropy = 0.592\nsamples = 7\nvalue = [1, 6]"] ;
105 -> 113 ;
114 [label="entropy = 0.0\nsamples = 6\nvalue = [0, 6]"] ;
113 -> 114 ;
115 [label="entropy = 0.0\nsamples = 1\nvalue = [1, 0]"] ;
113 -> 115 ;
116 [label="entropy = 0.0\nsamples = 8\nvalue = [0, 8]"] ;
104 -> 116 ;
117 [label="price <= 352.5\nentropy = 0.534\nsamples = 2661\nvalue = [324, 2337]"] ;
1 -> 117 ;
118 [label="age_group <= 1.5\nentropy = 0.194\nsamples = 134\nvalue = [4, 130]"] ;
117 -> 118 ;
119 [label="channel <= 2.5\nentropy = 0.461\nsamples = 41\nvalue = [4, 37]"] ;
118 -> 119 ;
120 [label="product_type <= 5.5\nentropy = 0.629\nsamples = 19\nvalue = [3, 16]"] ;
119 -> 120 ;
121 [label="price <= 350.5\nentropy = 0.75\nsamples = 14\nvalue = [3, 11]"] ;
120 -> 121 ;
122 [label="price <= 347.5\nentropy = 0.811\nsamples = 12\nvalue = [3, 9]"] ;
121 -> 122 ;
123 [label="price <= 346.5\nentropy = 1.0\nsamples = 2\nvalue = [1, 1]"] ;
122 -> 123 ;
124 [label="entropy = 0.0\nsamples = 1\nvalue = [0, 1]"] ;
123 -> 124 ;
125 [label="entropy = 0.0\nsamples = 1\nvalue = [1, 0]"] ;
123 -> 125 ;
126 [label="price <= 348.5\nentropy = 0.722\nsamples = 10\nvalue = [2, 8]"] ;
122 -> 126 ;
127 [label="entropy = 0.0\nsamples = 2\nvalue = [0, 2]"] ;
126 -> 127 ;
128 [label="entropy = 0.811\nsamples = 8\nvalue = [2, 6]"] ;
126 -> 128 ;
129 [label="entropy = 0.0\nsamples = 2\nvalue = [0, 2]"] ;
121 -> 129 ;
130 [label="entropy = 0.0\nsamples = 5\nvalue = [0, 5]"] ;
120 -> 130 ;
131 [label="price <= 350.5\nentropy = 0.267\nsamples = 22\nvalue = [1, 21]"] ;
119 -> 131 ;
132 [label="entropy = 0.0\nsamples = 18\nvalue = [0, 18]"] ;
131 -> 132 ;
133 [label="channel <= 4.0\nentropy = 0.811\nsamples = 4\nvalue = [1, 3]"] ;
131 -> 133 ;
134 [label="entropy = 0.0\nsamples = 2\nvalue = [0, 2]"] ;
133 -> 134 ;
135 [label="entropy = 1.0\nsamples = 2\nvalue = [1, 1]"] ;
133 -> 135 ;
136 [label="entropy = 0.0\nsamples = 93\nvalue = [0, 93]"] ;
118 -> 136 ;
137 [label="price <= 405.5\nentropy = 0.548\nsamples = 2527\nvalue = [320, 2207]"] ;
117 -> 137 ;
138 [label="price <= 353.5\nentropy = 0.526\nsamples = 2283\nvalue = [271, 2012]"] ;
137 -> 138 ;
139 [label="channel <= 5.5\nentropy = 0.82\nsamples = 86\nvalue = [22, 64]"] ;
138 -> 139 ;
140 [label="product_type <= 4.5\nentropy = 0.863\nsamples = 77\nvalue = [22, 55]"] ;
139 -> 140 ;
141 [label="channel <= 4.5\nentropy = 0.883\nsamples = 73\nvalue = [22, 51]"] ;
140 -> 141 ;
142 [label="channel <= 3.5\nentropy = 0.825\nsamples = 58\nvalue = [15.0, 43.0]"] ;
141 -> 142 ;
143 [label="channel <= 1.5\nentropy = 0.867\nsamples = 52\nvalue = [15.0, 37.0]"] ;
142 -> 143 ;
144 [label="entropy = 0.0\nsamples = 2\nvalue = [0, 2]"] ;
143 -> 144 ;
145 [label="entropy = 0.881\nsamples = 50\nvalue = [15, 35]"] ;
143 -> 145 ;
146 [label="entropy = 0.0\nsamples = 6\nvalue = [0, 6]"] ;
142 -> 146 ;
147 [label="age_group <= 1.5\nentropy = 0.997\nsamples = 15\nvalue = [7, 8]"] ;
141 -> 147 ;
148 [label="entropy = 1.0\nsamples = 4\nvalue = [2, 2]"] ;
147 -> 148 ;
149 [label="age_group <= 2.5\nentropy = 0.994\nsamples = 11\nvalue = [5, 6]"] ;
147 -> 149 ;
150 [label="entropy = 0.985\nsamples = 7\nvalue = [3, 4]"] ;
149 -> 150 ;
151 [label="entropy = 1.0\nsamples = 4\nvalue = [2, 2]"] ;
149 -> 151 ;
152 [label="entropy = 0.0\nsamples = 4\nvalue = [0, 4]"] ;
140 -> 152 ;
153 [label="entropy = 0.0\nsamples = 9\nvalue = [0, 9]"] ;
139 -> 153 ;
154 [label="price <= 387.5\nentropy = 0.51\nsamples = 2197\nvalue = [249, 1948]"] ;
138 -> 154 ;
155 [label="price <= 381.5\nentropy = 0.564\nsamples = 1109\nvalue = [147, 962]"] ;
154 -> 155 ;
156 [label="price <= 371.5\nentropy = 0.446\nsamples = 840\nvalue = [78, 762]"] ;
155 -> 156 ;
157 [label="price <= 363.5\nentropy = 0.575\nsamples = 388\nvalue = [53.0, 335.0]"] ;
156 -> 157 ;
158 [label="price <= 357.5\nentropy = 0.346\nsamples = 263\nvalue = [17, 246]"] ;
157 -> 158 ;
159 [label="entropy = 0.564\nsamples = 83\nvalue = [11, 72]"] ;
158 -> 159 ;
160 [label="entropy = 0.211\nsamples = 180\nvalue = [6, 174]"] ;
158 -> 160 ;
161 [label="price <= 365.5\nentropy = 0.866\nsamples = 125\nvalue = [36, 89]"] ;
157 -> 161 ;
162 [label="entropy = 0.968\nsamples = 38\nvalue = [23, 15]"] ;
161 -> 162 ;
163 [label="entropy = 0.608\nsamples = 87\nvalue = [13.0, 74.0]"] ;
161 -> 163 ;
164 [label="price <= 374.0\nentropy = 0.309\nsamples = 452\nvalue = [25, 427]"] ;
156 -> 164 ;
165 [label="entropy = 0.0\nsamples = 19\nvalue = [0, 19]"] ;
164 -> 165 ;
166 [label="channel <= 6.5\nentropy = 0.318\nsamples = 433\nvalue = [25, 408]"] ;
164 -> 166 ;
167 [label="entropy = 0.325\nsamples = 421\nvalue = [25, 396]"] ;
166 -> 167 ;
168 [label="entropy = 0.0\nsamples = 12\nvalue = [0, 12]"] ;
166 -> 168 ;
169 [label="price <= 384.0\nentropy = 0.821\nsamples = 269\nvalue = [69, 200]"] ;
155 -> 169 ;
170 [label="price <= 382.5\nentropy = 0.729\nsamples = 118\nvalue = [24, 94]"] ;
169 -> 170 ;
171 [label="channel <= 5.5\nentropy = 0.803\nsamples = 98\nvalue = [24, 74]"] ;
170 -> 171 ;
172 [label="entropy = 0.837\nsamples = 90\nvalue = [24, 66]"] ;
171 -> 172 ;
173 [label="entropy = 0.0\nsamples = 8\nvalue = [0, 8]"] ;
171 -> 173 ;
174 [label="entropy = 0.0\nsamples = 20\nvalue = [0, 20]"] ;
170 -> 174 ;
175 [label="price <= 386.5\nentropy = 0.879\nsamples = 151\nvalue = [45, 106]"] ;
169 -> 175 ;
176 [label="price <= 385.5\nentropy = 1.0\nsamples = 38\nvalue = [19, 19]"] ;
175 -> 176 ;
177 [label="entropy = 0.904\nsamples = 25\nvalue = [8, 17]"] ;
176 -> 177 ;
178 [label="entropy = 0.619\nsamples = 13\nvalue = [11, 2]"] ;
176 -> 178 ;
179 [label="channel <= 1.5\nentropy = 0.778\nsamples = 113\nvalue = [26, 87]"] ;
175 -> 179 ;
180 [label="entropy = 1.0\nsamples = 6\nvalue = [3, 3]"] ;
179 -> 180 ;
181 [label="entropy = 0.751\nsamples = 107\nvalue = [23, 84]"] ;
179 -> 181 ;
182 [label="price <= 398.5\nentropy = 0.449\nsamples = 1088\nvalue = [102, 986]"] ;
154 -> 182 ;
183 [label="product_type <= 4.5\nentropy = 0.174\nsamples = 77\nvalue = [2, 75]"] ;
182 -> 183 ;
184 [label="entropy = 0.0\nsamples = 65\nvalue = [0, 65]"] ;
183 -> 184 ;
185 [label="channel <= 2.5\nentropy = 0.65\nsamples = 12\nvalue = [2, 10]"] ;
183 -> 185 ;
186 [label="entropy = 0.0\nsamples = 1\nvalue = [1, 0]"] ;
185 -> 186 ;
187 [label="channel <= 5.5\nentropy = 0.439\nsamples = 11\nvalue = [1, 10]"] ;
185 -> 187 ;
188 [label="entropy = 0.0\nsamples = 8\nvalue = [0, 8]"] ;
187 -> 188 ;
189 [label="entropy = 0.918\nsamples = 3\nvalue = [1, 2]"] ;
187 -> 189 ;
190 [label="product_type <= 6.5\nentropy = 0.466\nsamples = 1011\nvalue = [100, 911]"] ;
182 -> 190 ;
191 [label="channel <= 1.5\nentropy = 0.478\nsamples = 963\nvalue = [99, 864]"] ;
190 -> 191 ;
192 [label="age_group <= 1.5\nentropy = 0.634\nsamples = 50\nvalue = [8, 42]"] ;
191 -> 192 ;
193 [label="entropy = 0.89\nsamples = 13\nvalue = [4, 9]"] ;
192 -> 193 ;
194 [label="entropy = 0.494\nsamples = 37\nvalue = [4, 33]"] ;
192 -> 194 ;
195 [label="product_type <= 4.5\nentropy = 0.468\nsamples = 913\nvalue = [91, 822]"] ;
191 -> 195 ;
196 [label="entropy = 0.459\nsamples = 868\nvalue = [84, 784]"] ;
195 -> 196 ;
197 [label="entropy = 0.624\nsamples = 45\nvalue = [7, 38]"] ;
195 -> 197 ;
198 [label="channel <= 2.5\nentropy = 0.146\nsamples = 48\nvalue = [1, 47]"] ;
190 -> 198 ;
199 [label="entropy = 0.0\nsamples = 20\nvalue = [0, 20]"] ;
198 -> 199 ;
200 [label="channel <= 3.5\nentropy = 0.222\nsamples = 28\nvalue = [1, 27]"] ;
198 -> 200 ;
201 [label="entropy = 0.414\nsamples = 12\nvalue = [1, 11]"] ;
200 -> 201 ;
202 [label="entropy = 0.0\nsamples = 16\nvalue = [0, 16]"] ;
200 -> 202 ;
203 [label="price <= 414.5\nentropy = 0.724\nsamples = 244\nvalue = [49, 195]"] ;
137 -> 203 ;
204 [label="product_type <= 2.5\nentropy = 0.989\nsamples = 48\nvalue = [27, 21]"] ;
203 -> 204 ;
205 [label="entropy = 0.0\nsamples = 1\nvalue = [0, 1]"] ;
204 -> 205 ;
206 [label="price <= 411.0\nentropy = 0.984\nsamples = 47\nvalue = [27.0, 20.0]"] ;
204 -> 206 ;
207 [label="channel <= 3.5\nentropy = 1.0\nsamples = 30\nvalue = [15, 15]"] ;
206 -> 207 ;
208 [label="product_type <= 6.0\nentropy = 0.985\nsamples = 21\nvalue = [12, 9]"] ;
207 -> 208 ;
209 [label="age_group <= 1.5\nentropy = 0.971\nsamples = 20\nvalue = [12, 8]"] ;
208 -> 209 ;
210 [label="entropy = 0.971\nsamples = 5\nvalue = [2, 3]"] ;
209 -> 210 ;
211 [label="entropy = 0.918\nsamples = 15\nvalue = [10, 5]"] ;
209 -> 211 ;
212 [label="entropy = 0.0\nsamples = 1\nvalue = [0, 1]"] ;
208 -> 212 ;
213 [label="channel <= 4.5\nentropy = 0.918\nsamples = 9\nvalue = [3, 6]"] ;
207 -> 213 ;
214 [label="entropy = 0.0\nsamples = 1\nvalue = [0, 1]"] ;
213 -> 214 ;
215 [label="age_group <= 1.5\nentropy = 0.954\nsamples = 8\nvalue = [3, 5]"] ;
213 -> 215 ;
216 [label="entropy = 1.0\nsamples = 2\nvalue = [1, 1]"] ;
215 -> 216 ;
217 [label="entropy = 0.918\nsamples = 6\nvalue = [2, 4]"] ;
215 -> 217 ;
218 [label="product_type <= 5.5\nentropy = 0.874\nsamples = 17\nvalue = [12, 5]"] ;
206 -> 218 ;
219 [label="entropy = 0.0\nsamples = 2\nvalue = [2, 0]"] ;
218 -> 219 ;
220 [label="age_group <= 1.5\nentropy = 0.918\nsamples = 15\nvalue = [10, 5]"] ;
218 -> 220 ;
221 [label="channel <= 1.5\nentropy = 1.0\nsamples = 6\nvalue = [3, 3]"] ;
220 -> 221 ;
222 [label="entropy = 0.0\nsamples = 1\nvalue = [1, 0]"] ;
221 -> 222 ;
223 [label="entropy = 0.971\nsamples = 5\nvalue = [2, 3]"] ;
221 -> 223 ;
224 [label="channel <= 3.5\nentropy = 0.764\nsamples = 9\nvalue = [7, 2]"] ;
220 -> 224 ;
225 [label="entropy = 0.971\nsamples = 5\nvalue = [3, 2]"] ;
224 -> 225 ;
226 [label="entropy = 0.0\nsamples = 4\nvalue = [4, 0]"] ;
224 -> 226 ;
227 [label="price <= 425.5\nentropy = 0.507\nsamples = 196\nvalue = [22, 174]"] ;
203 -> 227 ;
228 [label="product_type <= 6.5\nentropy = 0.311\nsamples = 143\nvalue = [8, 135]"] ;
227 -> 228 ;
229 [label="product_type <= 5.5\nentropy = 0.364\nsamples = 115\nvalue = [8, 107]"] ;
228 -> 229 ;
230 [label="price <= 421.0\nentropy = 0.316\nsamples = 105\nvalue = [6, 99]"] ;
229 -> 230 ;
231 [label="channel <= 2.5\nentropy = 0.196\nsamples = 66\nvalue = [2, 64]"] ;
230 -> 231 ;
232 [label="entropy = 0.0\nsamples = 27\nvalue = [0, 27]"] ;
231 -> 232 ;
233 [label="entropy = 0.292\nsamples = 39\nvalue = [2, 37]"] ;
231 -> 233 ;
234 [label="channel <= 4.5\nentropy = 0.477\nsamples = 39\nvalue = [4, 35]"] ;
230 -> 234 ;
235 [label="entropy = 0.371\nsamples = 28\nvalue = [2, 26]"] ;
234 -> 235 ;
236 [label="entropy = 0.684\nsamples = 11\nvalue = [2, 9]"] ;
234 -> 236 ;
237 [label="channel <= 3.5\nentropy = 0.722\nsamples = 10\nvalue = [2, 8]"] ;
229 -> 237 ;
238 [label="entropy = 0.0\nsamples = 6\nvalue = [0, 6]"] ;
237 -> 238 ;
239 [label="channel <= 5.5\nentropy = 1.0\nsamples = 4\nvalue = [2, 2]"] ;
237 -> 239 ;
240 [label="entropy = 0.0\nsamples = 2\nvalue = [2, 0]"] ;
239 -> 240 ;
241 [label="entropy = 0.0\nsamples = 2\nvalue = [0, 2]"] ;
239 -> 241 ;
242 [label="entropy = 0.0\nsamples = 28\nvalue = [0, 28]"] ;
228 -> 242 ;
243 [label="age_group <= 2.5\nentropy = 0.833\nsamples = 53\nvalue = [14, 39]"] ;
227 -> 243 ;
244 [label="channel <= 5.5\nentropy = 0.75\nsamples = 42\nvalue = [9, 33]"] ;
243 -> 244 ;
245 [label="channel <= 4.0\nentropy = 0.602\nsamples = 34\nvalue = [5, 29]"] ;
244 -> 245 ;
246 [label="age_group <= 1.5\nentropy = 0.516\nsamples = 26\nvalue = [3, 23]"] ;
245 -> 246 ;
247 [label="entropy = 0.684\nsamples = 11\nvalue = [2, 9]"] ;
246 -> 247 ;
248 [label="entropy = 0.353\nsamples = 15\nvalue = [1, 14]"] ;
246 -> 248 ;
249 [label="age_group <= 1.5\nentropy = 0.811\nsamples = 8\nvalue = [2, 6]"] ;
245 -> 249 ;
250 [label="entropy = 0.0\nsamples = 2\nvalue = [0, 2]"] ;
249 -> 250 ;
251 [label="entropy = 0.918\nsamples = 6\nvalue = [2, 4]"] ;
249 -> 251 ;
252 [label="product_type <= 6.0\nentropy = 1.0\nsamples = 8\nvalue = [4, 4]"] ;
244 -> 252 ;
253 [label="age_group <= 1.5\nentropy = 0.985\nsamples = 7\nvalue = [4, 3]"] ;
252 -> 253 ;
254 [label="entropy = 0.918\nsamples = 3\nvalue = [1, 2]"] ;
253 -> 254 ;
255 [label="entropy = 0.811\nsamples = 4\nvalue = [3, 1]"] ;
253 -> 255 ;
256 [label="entropy = 0.0\nsamples = 1\nvalue = [0, 1]"] ;
252 -> 256 ;
257 [label="product_type <= 4.5\nentropy = 0.994\nsamples = 11\nvalue = [5, 6]"] ;
243 -> 257 ;
258 [label="channel <= 2.5\nentropy = 0.918\nsamples = 9\nvalue = [3, 6]"] ;
257 -> 258 ;
259 [label="channel <= 1.5\nentropy = 0.811\nsamples = 4\nvalue = [3, 1]"] ;
258 -> 259 ;
260 [label="entropy = 0.0\nsamples = 1\nvalue = [0, 1]"] ;
259 -> 260 ;
261 [label="entropy = 0.0\nsamples = 3\nvalue = [3, 0]"] ;
259 -> 261 ;
262 [label="entropy = 0.0\nsamples = 5\nvalue = [0, 5]"] ;
258 -> 262 ;
263 [label="entropy = 0.0\nsamples = 2\nvalue = [2, 0]"] ;
257 -> 263 ;
264 [label="product_type <= 7.5\nentropy = 0.335\nsamples = 20704\nvalue = [1281, 19423]"] ;
0 -> 264 [labeldistance=2.5, labelangle=-45, headlabel="False"] ;
265 [label="price <= 546.5\nentropy = 0.296\nsamples = 17472\nvalue = [914, 16558]"] ;
264 -> 265 ;
266 [label="price <= 544.5\nentropy = 0.367\nsamples = 4834\nvalue = [340, 4494]"] ;
265 -> 266 ;
267 [label="price <= 463.5\nentropy = 0.351\nsamples = 4684\nvalue = [309, 4375]"] ;
266 -> 267 ;
268 [label="price <= 448.5\nentropy = 0.259\nsamples = 1349\nvalue = [59, 1290]"] ;
267 -> 268 ;
269 [label="price <= 442.5\nentropy = 0.383\nsamples = 642\nvalue = [48.0, 594.0]"] ;
268 -> 269 ;
270 [label="price <= 433.0\nentropy = 0.329\nsamples = 613\nvalue = [37, 576]"] ;
269 -> 270 ;
271 [label="gender <= 1.5\nentropy = 0.161\nsamples = 213\nvalue = [5, 208]"] ;
270 -> 271 ;
272 [label="channel <= 4.5\nentropy = 0.11\nsamples = 205\nvalue = [3, 202]"] ;
271 -> 272 ;
273 [label="entropy = 0.058\nsamples = 149\nvalue = [1, 148]"] ;
272 -> 273 ;
274 [label="entropy = 0.222\nsamples = 56\nvalue = [2, 54]"] ;
272 -> 274 ;
275 [label="channel <= 4.0\nentropy = 0.811\nsamples = 8\nvalue = [2, 6]"] ;
271 -> 275 ;
276 [label="entropy = 0.0\nsamples = 4\nvalue = [0, 4]"] ;
275 -> 276 ;
277 [label="entropy = 1.0\nsamples = 4\nvalue = [2, 2]"] ;
275 -> 277 ;
278 [label="price <= 435.5\nentropy = 0.402\nsamples = 400\nvalue = [32, 368]"] ;
270 -> 278 ;
279 [label="channel <= 5.5\nentropy = 0.467\nsamples = 312\nvalue = [31.0, 281.0]"] ;
278 -> 279 ;
280 [label="entropy = 0.499\nsamples = 283\nvalue = [31, 252]"] ;
279 -> 280 ;
281 [label="entropy = 0.0\nsamples = 29\nvalue = [0, 29]"] ;
279 -> 281 ;
282 [label="price <= 441.5\nentropy = 0.09\nsamples = 88\nvalue = [1, 87]"] ;
278 -> 282 ;
283 [label="entropy = 0.0\nsamples = 42\nvalue = [0, 42]"] ;
282 -> 283 ;
284 [label="entropy = 0.151\nsamples = 46\nvalue = [1, 45]"] ;
282 -> 284 ;
285 [label="age_group <= 1.5\nentropy = 0.958\nsamples = 29\nvalue = [11, 18]"] ;
269 -> 285 ;
286 [label="entropy = 0.0\nsamples = 6\nvalue = [0, 6]"] ;
285 -> 286 ;
287 [label="channel <= 1.5\nentropy = 0.999\nsamples = 23\nvalue = [11, 12]"] ;
285 -> 287 ;
288 [label="entropy = 0.0\nsamples = 3\nvalue = [0, 3]"] ;
287 -> 288 ;
289 [label="channel <= 2.5\nentropy = 0.993\nsamples = 20\nvalue = [11, 9]"] ;
287 -> 289 ;
290 [label="entropy = 0.0\nsamples = 4\nvalue = [4, 0]"] ;
289 -> 290 ;
291 [label="entropy = 0.989\nsamples = 16\nvalue = [7, 9]"] ;
289 -> 291 ;
292 [label="price <= 457.5\nentropy = 0.116\nsamples = 707\nvalue = [11, 696]"] ;
268 -> 292 ;
293 [label="channel <= 5.5\nentropy = 0.163\nsamples = 335\nvalue = [8, 327]"] ;
292 -> 293 ;
294 [label="gender <= 1.5\nentropy = 0.175\nsamples = 305\nvalue = [8, 297]"] ;
293 -> 294 ;
295 [label="price <= 451.5\nentropy = 0.185\nsamples = 285\nvalue = [8, 277]"] ;
294 -> 295 ;
296 [label="entropy = 0.124\nsamples = 118\nvalue = [2, 116]"] ;
295 -> 296 ;
297 [label="entropy = 0.223\nsamples = 167\nvalue = [6, 161]"] ;
295 -> 297 ;
298 [label="entropy = 0.0\nsamples = 20\nvalue = [0, 20]"] ;
294 -> 298 ;
299 [label="entropy = 0.0\nsamples = 30\nvalue = [0, 30]"] ;
293 -> 299 ;
300 [label="channel <= 3.5\nentropy = 0.068\nsamples = 372\nvalue = [3, 369]"] ;
292 -> 300 ;
301 [label="channel <= 1.5\nentropy = 0.096\nsamples = 243\nvalue = [3, 240]"] ;
300 -> 301 ;
302 [label="age_group <= 1.5\nentropy = 0.297\nsamples = 19\nvalue = [1, 18]"] ;
301 -> 302 ;
303 [label="entropy = 0.544\nsamples = 8\nvalue = [1, 7]"] ;
302 -> 303 ;
304 [label="entropy = 0.0\nsamples = 11\nvalue = [0, 11]"] ;
302 -> 304 ;
305 [label="age_group <= 2.5\nentropy = 0.074\nsamples = 224\nvalue = [2, 222]"] ;
301 -> 305 ;
306 [label="entropy = 0.052\nsamples = 172\nvalue = [1, 171]"] ;
305 -> 306 ;
307 [label="entropy = 0.137\nsamples = 52\nvalue = [1, 51]"] ;
305 -> 307 ;
308 [label="entropy = 0.0\nsamples = 129\nvalue = [0, 129]"] ;
300 -> 308 ;
309 [label="price <= 470.0\nentropy = 0.384\nsamples = 3335\nvalue = [250, 3085]"] ;
267 -> 309 ;
310 [label="price <= 465.5\nentropy = 0.799\nsamples = 190\nvalue = [46, 144]"] ;
309 -> 310 ;
311 [label="channel <= 5.5\nentropy = 0.992\nsamples = 49\nvalue = [22.0, 27.0]"] ;
310 -> 311 ;
312 [label="gender <= 1.5\nentropy = 0.971\nsamples = 45\nvalue = [18, 27]"] ;
311 -> 312 ;
313 [label="product_type <= 6.5\nentropy = 0.999\nsamples = 31\nvalue = [16, 15]"] ;
312 -> 313 ;
314 [label="entropy = 0.503\nsamples = 9\nvalue = [8, 1]"] ;
313 -> 314 ;
315 [label="entropy = 0.946\nsamples = 22\nvalue = [8, 14]"] ;
313 -> 315 ;
316 [label="age_group <= 1.5\nentropy = 0.592\nsamples = 14\nvalue = [2, 12]"] ;
312 -> 316 ;
317 [label="entropy = 0.918\nsamples = 3\nvalue = [2, 1]"] ;
316 -> 317 ;
318 [label="entropy = 0.0\nsamples = 11\nvalue = [0, 11]"] ;
316 -> 318 ;
319 [label="entropy = 0.0\nsamples = 4\nvalue = [4, 0]"] ;
311 -> 319 ;
320 [label="price <= 468.5\nentropy = 0.658\nsamples = 141\nvalue = [24, 117]"] ;
310 -> 320 ;
321 [label="entropy = 0.0\nsamples = 47\nvalue = [0, 47]"] ;
320 -> 321 ;
322 [label="channel <= 1.5\nentropy = 0.82\nsamples = 94\nvalue = [24.0, 70.0]"] ;
320 -> 322 ;
323 [label="entropy = 0.0\nsamples = 5\nvalue = [0, 5]"] ;
322 -> 323 ;
324 [label="channel <= 6.5\nentropy = 0.841\nsamples = 89\nvalue = [24, 65]"] ;
322 -> 324 ;
325 [label="entropy = 0.87\nsamples = 79\nvalue = [23, 56]"] ;
324 -> 325 ;
326 [label="entropy = 0.469\nsamples = 10\nvalue = [1, 9]"] ;
324 -> 326 ;
327 [label="price <= 526.5\nentropy = 0.346\nsamples = 3145\nvalue = [204, 2941]"] ;
309 -> 327 ;
328 [label="price <= 511.5\nentropy = 0.33\nsamples = 2576\nvalue = [156, 2420]"] ;
327 -> 328 ;
329 [label="channel <= 1.5\nentropy = 0.366\nsamples = 1857\nvalue = [130, 1727]"] ;
328 -> 329 ;
330 [label="price <= 471.5\nentropy = 0.135\nsamples = 106\nvalue = [2, 104]"] ;
329 -> 330 ;
331 [label="entropy = 0.592\nsamples = 7\nvalue = [1, 6]"] ;
330 -> 331 ;
332 [label="entropy = 0.081\nsamples = 99\nvalue = [1, 98]"] ;
330 -> 332 ;
333 [label="product_type <= 3.5\nentropy = 0.377\nsamples = 1751\nvalue = [128, 1623]"] ;
329 -> 333 ;
334 [label="entropy = 0.0\nsamples = 16\nvalue = [0, 16]"] ;
333 -> 334 ;
335 [label="entropy = 0.38\nsamples = 1735\nvalue = [128, 1607]"] ;
333 -> 335 ;
336 [label="price <= 516.5\nentropy = 0.224\nsamples = 719\nvalue = [26.0, 693.0]"] ;
328 -> 336 ;
337 [label="entropy = 0.0\nsamples = 38\nvalue = [0, 38]"] ;
336 -> 337 ;
338 [label="price <= 518.5\nentropy = 0.234\nsamples = 681\nvalue = [26, 655]"] ;
336 -> 338 ;
339 [label="entropy = 0.261\nsamples = 454\nvalue = [20, 434]"] ;
338 -> 339 ;
340 [label="entropy = 0.176\nsamples = 227\nvalue = [6, 221]"] ;
338 -> 340 ;
341 [label="price <= 528.5\nentropy = 0.417\nsamples = 569\nvalue = [48, 521]"] ;
327 -> 341 ;
342 [label="price <= 527.5\nentropy = 0.973\nsamples = 47\nvalue = [19, 28]"] ;
341 -> 342 ;
343 [label="channel <= 2.5\nentropy = 0.84\nsamples = 26\nvalue = [7, 19]"] ;
342 -> 343 ;
344 [label="entropy = 0.961\nsamples = 13\nvalue = [5, 8]"] ;
343 -> 344 ;
345 [label="entropy = 0.619\nsamples = 13\nvalue = [2, 11]"] ;
343 -> 345 ;
346 [label="age_group <= 2.5\nentropy = 0.985\nsamples = 21\nvalue = [12, 9]"] ;
342 -> 346 ;
347 [label="entropy = 0.998\nsamples = 17\nvalue = [8, 9]"] ;
346 -> 347 ;
348 [label="entropy = 0.0\nsamples = 4\nvalue = [4, 0]"] ;
346 -> 348 ;
349 [label="price <= 542.5\nentropy = 0.31\nsamples = 522\nvalue = [29, 493]"] ;
341 -> 349 ;
350 [label="price <= 529.5\nentropy = 0.252\nsamples = 428\nvalue = [18, 410]"] ;
349 -> 350 ;
351 [label="entropy = 0.48\nsamples = 58\nvalue = [6, 52]"] ;
350 -> 351 ;
352 [label="entropy = 0.206\nsamples = 370\nvalue = [12, 358]"] ;
350 -> 352 ;
353 [label="age_group <= 1.5\nentropy = 0.521\nsamples = 94\nvalue = [11, 83]"] ;
349 -> 353 ;
354 [label="entropy = 0.677\nsamples = 28\nvalue = [5, 23]"] ;
353 -> 354 ;
355 [label="entropy = 0.439\nsamples = 66\nvalue = [6, 60]"] ;
353 -> 355 ;
356 [label="product_type <= 6.5\nentropy = 0.735\nsamples = 150\nvalue = [31, 119]"] ;
266 -> 356 ;
357 [label="age_group <= 2.5\nentropy = 0.807\nsamples = 89\nvalue = [22, 67]"] ;
356 -> 357 ;
358 [label="channel <= 2.5\nentropy = 0.849\nsamples = 69\nvalue = [19, 50]"] ;
357 -> 358 ;
359 [label="product_type <= 5.5\nentropy = 0.961\nsamples = 26\nvalue = [10, 16]"] ;
358 -> 359 ;
360 [label="product_type <= 2.5\nentropy = 0.592\nsamples = 7\nvalue = [1, 6]"] ;
359 -> 360 ;
361 [label="age_group <= 1.5\nentropy = 1.0\nsamples = 2\nvalue = [1, 1]"] ;
360 -> 361 ;
362 [label="entropy = 0.0\nsamples = 1\nvalue = [1, 0]"] ;
361 -> 362 ;
363 [label="entropy = 0.0\nsamples = 1\nvalue = [0, 1]"] ;
361 -> 363 ;
364 [label="entropy = 0.0\nsamples = 5\nvalue = [0, 5]"] ;
360 -> 364 ;
365 [label="channel <= 1.5\nentropy = 0.998\nsamples = 19\nvalue = [9, 10]"] ;
359 -> 365 ;
366 [label="entropy = 0.0\nsamples = 1\nvalue = [0, 1]"] ;
365 -> 366 ;
367 [label="price <= 545.5\nentropy = 1.0\nsamples = 18\nvalue = [9, 9]"] ;
365 -> 367 ;
368 [label="entropy = 0.998\nsamples = 17\nvalue = [9, 8]"] ;
367 -> 368 ;
369 [label="entropy = 0.0\nsamples = 1\nvalue = [0, 1]"] ;
367 -> 369 ;
370 [label="product_type <= 3.5\nentropy = 0.74\nsamples = 43\nvalue = [9, 34]"] ;
358 -> 370 ;
371 [label="price <= 545.5\nentropy = 0.863\nsamples = 7\nvalue = [2, 5]"] ;
370 -> 371 ;
372 [label="channel <= 4.5\nentropy = 0.65\nsamples = 6\nvalue = [1, 5]"] ;
371 -> 372 ;
373 [label="entropy = 0.811\nsamples = 4\nvalue = [1, 3]"] ;
372 -> 373 ;
374 [label="entropy = 0.0\nsamples = 2\nvalue = [0, 2]"] ;
372 -> 374 ;
375 [label="entropy = 0.0\nsamples = 1\nvalue = [1, 0]"] ;
371 -> 375 ;
376 [label="product_type <= 4.5\nentropy = 0.711\nsamples = 36\nvalue = [7, 29]"] ;
370 -> 376 ;
377 [label="entropy = 0.0\nsamples = 5\nvalue = [0, 5]"] ;
376 -> 377 ;
378 [label="product_type <= 5.5\nentropy = 0.771\nsamples = 31\nvalue = [7, 24]"] ;
376 -> 378 ;
379 [label="entropy = 0.0\nsamples = 1\nvalue = [1, 0]"] ;
378 -> 379 ;
380 [label="entropy = 0.722\nsamples = 30\nvalue = [6, 24]"] ;
378 -> 380 ;
381 [label="channel <= 2.5\nentropy = 0.61\nsamples = 20\nvalue = [3, 17]"] ;
357 -> 381 ;
382 [label="entropy = 0.0\nsamples = 9\nvalue = [0, 9]"] ;
381 -> 382 ;
383 [label="product_type <= 3.5\nentropy = 0.845\nsamples = 11\nvalue = [3, 8]"] ;
381 -> 383 ;
384 [label="entropy = 0.0\nsamples = 3\nvalue = [0, 3]"] ;
383 -> 384 ;
385 [label="product_type <= 5.0\nentropy = 0.954\nsamples = 8\nvalue = [3, 5]"] ;
383 -> 385 ;
386 [label="entropy = 0.0\nsamples = 1\nvalue = [1, 0]"] ;
385 -> 386 ;
387 [label="channel <= 5.5\nentropy = 0.863\nsamples = 7\nvalue = [2, 5]"] ;
385 -> 387 ;
388 [label="entropy = 0.722\nsamples = 5\nvalue = [1, 4]"] ;
387 -> 388 ;
389 [label="entropy = 1.0\nsamples = 2\nvalue = [1, 1]"] ;
387 -> 389 ;
390 [label="gender <= 1.5\nentropy = 0.604\nsamples = 61\nvalue = [9, 52]"] ;
356 -> 390 ;
391 [label="age_group <= 2.5\nentropy = 0.567\nsamples = 60\nvalue = [8, 52]"] ;
390 -> 391 ;
392 [label="channel <= 5.5\nentropy = 0.451\nsamples = 53\nvalue = [5, 48]"] ;
391 -> 392 ;
393 [label="channel <= 1.5\nentropy = 0.503\nsamples = 45\nvalue = [5, 40]"] ;
392 -> 393 ;
394 [label="entropy = 0.0\nsamples = 2\nvalue = [0, 2]"] ;
393 -> 394 ;
395 [label="channel <= 2.5\nentropy = 0.519\nsamples = 43\nvalue = [5, 38]"] ;
393 -> 395 ;
396 [label="entropy = 0.61\nsamples = 20\nvalue = [3, 17]"] ;
395 -> 396 ;
397 [label="entropy = 0.426\nsamples = 23\nvalue = [2, 21]"] ;
395 -> 397 ;
398 [label="entropy = 0.0\nsamples = 8\nvalue = [0, 8]"] ;
392 -> 398 ;
399 [label="channel <= 4.0\nentropy = 0.985\nsamples = 7\nvalue = [3, 4]"] ;
391 -> 399 ;
400 [label="channel <= 2.5\nentropy = 0.918\nsamples = 6\nvalue = [2, 4]"] ;
399 -> 400 ;
401 [label="entropy = 1.0\nsamples = 4\nvalue = [2, 2]"] ;
400 -> 401 ;
402 [label="entropy = 0.0\nsamples = 2\nvalue = [0, 2]"] ;
400 -> 402 ;
403 [label="entropy = 0.0\nsamples = 1\nvalue = [1, 0]"] ;
399 -> 403 ;
404 [label="entropy = 0.0\nsamples = 1\nvalue = [1, 0]"] ;
390 -> 404 ;
405 [label="price <= 1138.5\nentropy = 0.267\nsamples = 12638\nvalue = [574, 12064]"] ;
265 -> 405 ;
406 [label="price <= 923.5\nentropy = 0.251\nsamples = 11045\nvalue = [463, 10582]"] ;
405 -> 406 ;
407 [label="price <= 887.0\nentropy = 0.268\nsamples = 8752\nvalue = [401, 8351]"] ;
406 -> 407 ;
408 [label="price <= 824.5\nentropy = 0.259\nsamples = 8414\nvalue = [367, 8047]"] ;
407 -> 408 ;
409 [label="price <= 822.0\nentropy = 0.268\nsamples = 7730\nvalue = [353, 7377]"] ;
408 -> 409 ;
410 [label="price <= 700.5\nentropy = 0.256\nsamples = 7567\nvalue = [325, 7242]"] ;
409 -> 410 ;
411 [label="price <= 697.0\nentropy = 0.285\nsamples = 5080\nvalue = [252, 4828]"] ;
410 -> 411 ;
412 [label="entropy = 0.265\nsamples = 4828\nvalue = [218, 4610]"] ;
411 -> 412 ;
413 [label="entropy = 0.571\nsamples = 252\nvalue = [34, 218]"] ;
411 -> 413 ;
414 [label="price <= 787.5\nentropy = 0.191\nsamples = 2487\nvalue = [73, 2414]"] ;
410 -> 414 ;
415 [label="entropy = 0.156\nsamples = 1634\nvalue = [37, 1597]"] ;
414 -> 415 ;
416 [label="entropy = 0.252\nsamples = 853\nvalue = [36, 817]"] ;
414 -> 416 ;
417 [label="channel <= 5.5\nentropy = 0.662\nsamples = 163\nvalue = [28, 135]"] ;
409 -> 417 ;
418 [label="age_group <= 1.5\nentropy = 0.621\nsamples = 149\nvalue = [23, 126]"] ;
417 -> 418 ;
419 [label="entropy = 0.75\nsamples = 42\nvalue = [9, 33]"] ;
418 -> 419 ;
420 [label="entropy = 0.56\nsamples = 107\nvalue = [14.0, 93.0]"] ;
418 -> 420 ;
421 [label="channel <= 6.5\nentropy = 0.94\nsamples = 14\nvalue = [5, 9]"] ;
417 -> 421 ;
422 [label="entropy = 0.985\nsamples = 7\nvalue = [4, 3]"] ;
421 -> 422 ;
423 [label="entropy = 0.592\nsamples = 7\nvalue = [1, 6]"] ;
421 -> 423 ;
424 [label="price <= 869.5\nentropy = 0.144\nsamples = 684\nvalue = [14, 670]"] ;
408 -> 424 ;
425 [label="price <= 855.5\nentropy = 0.166\nsamples = 571\nvalue = [14, 557]"] ;
424 -> 425 ;
426 [label="price <= 847.5\nentropy = 0.129\nsamples = 503\nvalue = [9, 494]"] ;
425 -> 426 ;
427 [label="entropy = 0.183\nsamples = 325\nvalue = [9, 316]"] ;
426 -> 427 ;
428 [label="entropy = 0.0\nsamples = 178\nvalue = [0, 178]"] ;
426 -> 428 ;
429 [label="channel <= 5.5\nentropy = 0.379\nsamples = 68\nvalue = [5, 63]"] ;
425 -> 429 ;
430 [label="entropy = 0.29\nsamples = 59\nvalue = [3, 56]"] ;
429 -> 430 ;
431 [label="entropy = 0.764\nsamples = 9\nvalue = [2, 7]"] ;
429 -> 431 ;
432 [label="entropy = 0.0\nsamples = 113\nvalue = [0, 113]"] ;
424 -> 432 ;
433 [label="price <= 898.5\nentropy = 0.471\nsamples = 338\nvalue = [34, 304]"] ;
407 -> 433 ;
434 [label="price <= 888.5\nentropy = 0.736\nsamples = 111\nvalue = [23, 88]"] ;
433 -> 434 ;
435 [label="product_type <= 4.5\nentropy = 0.45\nsamples = 85\nvalue = [8, 77]"] ;
434 -> 435 ;
436 [label="entropy = 0.0\nsamples = 17\nvalue = [0, 17]"] ;
435 -> 436 ;
437 [label="channel <= 1.5\nentropy = 0.523\nsamples = 68\nvalue = [8, 60]"] ;
435 -> 437 ;
438 [label="entropy = 0.971\nsamples = 5\nvalue = [2, 3]"] ;
437 -> 438 ;
439 [label="entropy = 0.454\nsamples = 63\nvalue = [6, 57]"] ;
437 -> 439 ;
440 [label="age_group <= 1.5\nentropy = 0.983\nsamples = 26\nvalue = [15.0, 11.0]"] ;
434 -> 440 ;
441 [label="gender <= 1.5\nentropy = 0.722\nsamples = 5\nvalue = [1, 4]"] ;
440 -> 441 ;
442 [label="entropy = 1.0\nsamples = 2\nvalue = [1, 1]"] ;
441 -> 442 ;
443 [label="entropy = 0.0\nsamples = 3\nvalue = [0, 3]"] ;
441 -> 443 ;
444 [label="gender <= 1.5\nentropy = 0.918\nsamples = 21\nvalue = [14, 7]"] ;
440 -> 444 ;
445 [label="entropy = 1.0\nsamples = 14\nvalue = [7, 7]"] ;
444 -> 445 ;
446 [label="entropy = 0.0\nsamples = 7\nvalue = [7, 0]"] ;
444 -> 446 ;
447 [label="qty <= 1.5\nentropy = 0.28\nsamples = 227\nvalue = [11, 216]"] ;
433 -> 447 ;
448 [label="product_type <= 5.5\nentropy = 0.263\nsamples = 224\nvalue = [10, 214]"] ;
447 -> 448 ;
449 [label="entropy = 0.0\nsamples = 42\nvalue = [0, 42]"] ;
448 -> 449 ;
450 [label="age_group <= 2.5\nentropy = 0.307\nsamples = 182\nvalue = [10, 172]"] ;
448 -> 450 ;
451 [label="entropy = 0.245\nsamples = 148\nvalue = [6, 142]"] ;
450 -> 451 ;
452 [label="entropy = 0.523\nsamples = 34\nvalue = [4, 30]"] ;
450 -> 452 ;
453 [label="price <= 917.0\nentropy = 0.918\nsamples = 3\nvalue = [1, 2]"] ;
447 -> 453 ;
454 [label="entropy = 0.0\nsamples = 2\nvalue = [0, 2]"] ;
453 -> 454 ;
455 [label="entropy = 0.0\nsamples = 1\nvalue = [1, 0]"] ;
453 -> 455 ;
456 [label="price <= 967.5\nentropy = 0.179\nsamples = 2293\nvalue = [62, 2231]"] ;
406 -> 456 ;
457 [label="channel <= 3.5\nentropy = 0.071\nsamples = 350\nvalue = [3, 347]"] ;
456 -> 457 ;
458 [label="entropy = 0.0\nsamples = 212\nvalue = [0, 212]"] ;
457 -> 458 ;
459 [label="age_group <= 1.5\nentropy = 0.151\nsamples = 138\nvalue = [3, 135]"] ;
457 -> 459 ;
460 [label="entropy = 0.0\nsamples = 47\nvalue = [0, 47]"] ;
459 -> 460 ;
461 [label="age_group <= 2.5\nentropy = 0.209\nsamples = 91\nvalue = [3, 88]"] ;
459 -> 461 ;
462 [label="channel <= 5.5\nentropy = 0.27\nsamples = 65\nvalue = [3, 62]"] ;
461 -> 462 ;
463 [label="entropy = 0.327\nsamples = 50\nvalue = [3, 47]"] ;
462 -> 463 ;
464 [label="entropy = 0.0\nsamples = 15\nvalue = [0, 15]"] ;
462 -> 464 ;
465 [label="entropy = 0.0\nsamples = 26\nvalue = [0, 26]"] ;
461 -> 465 ;
466 [label="price <= 1111.5\nentropy = 0.196\nsamples = 1943\nvalue = [59, 1884]"] ;
456 -> 466 ;
467 [label="price <= 1042.0\nentropy = 0.231\nsamples = 1388\nvalue = [52, 1336]"] ;
466 -> 467 ;
468 [label="product_type <= 3.5\nentropy = 0.196\nsamples = 860\nvalue = [26, 834]"] ;
467 -> 468 ;
469 [label="channel <= 2.5\nentropy = 0.503\nsamples = 18\nvalue = [2, 16]"] ;
468 -> 469 ;
470 [label="entropy = 0.65\nsamples = 12\nvalue = [2, 10]"] ;
469 -> 470 ;
471 [label="entropy = 0.0\nsamples = 6\nvalue = [0, 6]"] ;
469 -> 471 ;
472 [label="age_group <= 1.5\nentropy = 0.187\nsamples = 842\nvalue = [24, 818]"] ;
468 -> 472 ;
473 [label="entropy = 0.265\nsamples = 222\nvalue = [10, 212]"] ;
472 -> 473 ;
474 [label="entropy = 0.156\nsamples = 620\nvalue = [14, 606]"] ;
472 -> 474 ;
475 [label="price <= 1064.0\nentropy = 0.283\nsamples = 528\nvalue = [26, 502]"] ;
467 -> 475 ;
476 [label="product_type <= 4.5\nentropy = 0.785\nsamples = 47\nvalue = [11, 36]"] ;
475 -> 476 ;
477 [label="entropy = 0.0\nsamples = 17\nvalue = [0, 17]"] ;
476 -> 477 ;
478 [label="entropy = 0.948\nsamples = 30\nvalue = [11, 19]"] ;
476 -> 478 ;
479 [label="product_type <= 4.5\nentropy = 0.2\nsamples = 481\nvalue = [15, 466]"] ;
475 -> 479 ;
480 [label="entropy = 0.544\nsamples = 24\nvalue = [3, 21]"] ;
479 -> 480 ;
481 [label="entropy = 0.175\nsamples = 457\nvalue = [12, 445]"] ;
479 -> 481 ;
482 [label="price <= 1113.5\nentropy = 0.098\nsamples = 555\nvalue = [7, 548]"] ;
466 -> 482 ;
483 [label="entropy = 0.0\nsamples = 72\nvalue = [0, 72]"] ;
482 -> 483 ;
484 [label="price <= 1126.5\nentropy = 0.109\nsamples = 483\nvalue = [7, 476]"] ;
482 -> 484 ;
485 [label="price <= 1125.5\nentropy = 0.14\nsamples = 303\nvalue = [6, 297]"] ;
484 -> 485 ;
486 [label="entropy = 0.077\nsamples = 213\nvalue = [2, 211]"] ;
485 -> 486 ;
487 [label="entropy = 0.262\nsamples = 90\nvalue = [4, 86]"] ;
485 -> 487 ;
488 [label="gender <= 1.5\nentropy = 0.05\nsamples = 180\nvalue = [1, 179]"] ;
484 -> 488 ;
489 [label="entropy = 0.0\nsamples = 115\nvalue = [0, 115]"] ;
488 -> 489 ;
490 [label="entropy = 0.115\nsamples = 65\nvalue = [1, 64]"] ;
488 -> 490 ;
491 [label="price <= 1343.5\nentropy = 0.365\nsamples = 1593\nvalue = [111.0, 1482.0]"] ;
405 -> 491 ;
492 [label="price <= 1335.5\nentropy = 0.459\nsamples = 1074\nvalue = [104, 970]"] ;
491 -> 492 ;
493 [label="price <= 1153.0\nentropy = 0.381\nsamples = 1014\nvalue = [75, 939]"] ;
492 -> 493 ;
494 [label="price <= 1148.5\nentropy = 0.808\nsamples = 113\nvalue = [28, 85]"] ;
493 -> 494 ;
495 [label="price <= 1143.0\nentropy = 0.469\nsamples = 50\nvalue = [5, 45]"] ;
494 -> 495 ;
496 [label="channel <= 3.5\nentropy = 0.755\nsamples = 23\nvalue = [5, 18]"] ;
495 -> 496 ;
497 [label="entropy = 0.523\nsamples = 17\nvalue = [2, 15]"] ;
496 -> 497 ;
498 [label="entropy = 1.0\nsamples = 6\nvalue = [3, 3]"] ;
496 -> 498 ;
499 [label="entropy = 0.0\nsamples = 27\nvalue = [0, 27]"] ;
495 -> 499 ;
500 [label="price <= 1150.5\nentropy = 0.947\nsamples = 63\nvalue = [23, 40]"] ;
494 -> 500 ;
501 [label="product_type <= 5.5\nentropy = 0.985\nsamples = 49\nvalue = [21, 28]"] ;
500 -> 501 ;
502 [label="entropy = 0.592\nsamples = 7\nvalue = [1, 6]"] ;
501 -> 502 ;
503 [label="entropy = 0.998\nsamples = 42\nvalue = [20, 22]"] ;
501 -> 503 ;
504 [label="channel <= 5.5\nentropy = 0.592\nsamples = 14\nvalue = [2, 12]"] ;
500 -> 504 ;
505 [label="entropy = 0.0\nsamples = 10\nvalue = [0, 10]"] ;
504 -> 505 ;
506 [label="entropy = 1.0\nsamples = 4\nvalue = [2, 2]"] ;
504 -> 506 ;
507 [label="price <= 1257.5\nentropy = 0.296\nsamples = 901\nvalue = [47, 854]"] ;
493 -> 507 ;
508 [label="product_type <= 3.5\nentropy = 0.218\nsamples = 630\nvalue = [22, 608]"] ;
507 -> 508 ;
509 [label="price <= 1207.5\nentropy = 0.684\nsamples = 11\nvalue = [2, 9]"] ;
508 -> 509 ;
510 [label="entropy = 0.0\nsamples = 6\nvalue = [0, 6]"] ;
509 -> 510 ;
511 [label="entropy = 0.971\nsamples = 5\nvalue = [2, 3]"] ;
509 -> 511 ;
512 [label="price <= 1241.5\nentropy = 0.206\nsamples = 619\nvalue = [20, 599]"] ;
508 -> 512 ;
513 [label="entropy = 0.221\nsamples = 565\nvalue = [20, 545]"] ;
512 -> 513 ;
514 [label="entropy = 0.0\nsamples = 54\nvalue = [0, 54]"] ;
512 -> 514 ;
515 [label="price <= 1270.5\nentropy = 0.444\nsamples = 271\nvalue = [25, 246]"] ;
507 -> 515 ;
516 [label="price <= 1259.0\nentropy = 0.954\nsamples = 32\nvalue = [20, 12]"] ;
515 -> 516 ;
517 [label="entropy = 0.863\nsamples = 7\nvalue = [2, 5]"] ;
516 -> 517 ;
518 [label="entropy = 0.855\nsamples = 25\nvalue = [18.0, 7.0]"] ;
516 -> 518 ;
519 [label="age_group <= 2.5\nentropy = 0.147\nsamples = 239\nvalue = [5, 234]"] ;
515 -> 519 ;
520 [label="entropy = 0.176\nsamples = 189\nvalue = [5, 184]"] ;
519 -> 520 ;
521 [label="entropy = 0.0\nsamples = 50\nvalue = [0, 50]"] ;
519 -> 521 ;
522 [label="channel <= 2.5\nentropy = 0.999\nsamples = 60\nvalue = [29.0, 31.0]"] ;
492 -> 522 ;
523 [label="channel <= 1.5\nentropy = 0.946\nsamples = 22\nvalue = [14, 8]"] ;
522 -> 523 ;
524 [label="age_group <= 2.5\nentropy = 0.971\nsamples = 5\nvalue = [2, 3]"] ;
523 -> 524 ;
525 [label="entropy = 0.0\nsamples = 3\nvalue = [0, 3]"] ;
524 -> 525 ;
526 [label="entropy = 0.0\nsamples = 2\nvalue = [2, 0]"] ;
524 -> 526 ;
527 [label="age_group <= 2.5\nentropy = 0.874\nsamples = 17\nvalue = [12, 5]"] ;
523 -> 527 ;
528 [label="age_group <= 1.5\nentropy = 0.811\nsamples = 16\nvalue = [12, 4]"] ;
527 -> 528 ;
529 [label="entropy = 0.0\nsamples = 3\nvalue = [3, 0]"] ;
528 -> 529 ;
530 [label="entropy = 0.89\nsamples = 13\nvalue = [9, 4]"] ;
528 -> 530 ;
531 [label="entropy = 0.0\nsamples = 1\nvalue = [0, 1]"] ;
527 -> 531 ;
532 [label="gender <= 1.5\nentropy = 0.968\nsamples = 38\nvalue = [15, 23]"] ;
522 -> 532 ;
533 [label="channel <= 5.5\nentropy = 0.828\nsamples = 23\nvalue = [6, 17]"] ;
532 -> 533 ;
534 [label="channel <= 4.5\nentropy = 0.863\nsamples = 21\nvalue = [6, 15]"] ;
533 -> 534 ;
535 [label="entropy = 0.75\nsamples = 14\nvalue = [3, 11]"] ;
534 -> 535 ;
536 [label="entropy = 0.985\nsamples = 7\nvalue = [3, 4]"] ;
534 -> 536 ;
537 [label="entropy = 0.0\nsamples = 2\nvalue = [0, 2]"] ;
533 -> 537 ;
538 [label="product_type <= 5.5\nentropy = 0.971\nsamples = 15\nvalue = [9, 6]"] ;
532 -> 538 ;
539 [label="entropy = 0.0\nsamples = 2\nvalue = [2, 0]"] ;
538 -> 539 ;
540 [label="channel <= 6.0\nentropy = 0.996\nsamples = 13\nvalue = [7, 6]"] ;
538 -> 540 ;
541 [label="entropy = 1.0\nsamples = 12\nvalue = [6, 6]"] ;
540 -> 541 ;
542 [label="entropy = 0.0\nsamples = 1\nvalue = [1, 0]"] ;
540 -> 542 ;
543 [label="qty <= 2.5\nentropy = 0.103\nsamples = 519\nvalue = [7, 512]"] ;
491 -> 543 ;
544 [label="gender <= 1.5\nentropy = 0.08\nsamples = 503\nvalue = [5, 498]"] ;
543 -> 544 ;
545 [label="price <= 1401.0\nentropy = 0.032\nsamples = 303\nvalue = [1, 302]"] ;
544 -> 545 ;
546 [label="price <= 1398.5\nentropy = 0.093\nsamples = 84\nvalue = [1, 83]"] ;
545 -> 546 ;
547 [label="entropy = 0.0\nsamples = 53\nvalue = [0, 53]"] ;
546 -> 547 ;
548 [label="channel <= 2.5\nentropy = 0.206\nsamples = 31\nvalue = [1, 30]"] ;
546 -> 548 ;
549 [label="entropy = 0.414\nsamples = 12\nvalue = [1, 11]"] ;
548 -> 549 ;
550 [label="entropy = 0.0\nsamples = 19\nvalue = [0, 19]"] ;
548 -> 550 ;
551 [label="entropy = 0.0\nsamples = 219\nvalue = [0, 219]"] ;
545 -> 551 ;
552 [label="price <= 1397.0\nentropy = 0.141\nsamples = 200\nvalue = [4, 196]"] ;
544 -> 552 ;
553 [label="entropy = 0.0\nsamples = 35\nvalue = [0, 35]"] ;
552 -> 553 ;
554 [label="price <= 1398.5\nentropy = 0.165\nsamples = 165\nvalue = [4, 161]"] ;
552 -> 554 ;
555 [label="age_group <= 2.5\nentropy = 0.503\nsamples = 9\nvalue = [1, 8]"] ;
554 -> 555 ;
556 [label="entropy = 0.0\nsamples = 6\nvalue = [0, 6]"] ;
555 -> 556 ;
557 [label="entropy = 0.918\nsamples = 3\nvalue = [1, 2]"] ;
555 -> 557 ;
558 [label="price <= 1488.0\nentropy = 0.137\nsamples = 156\nvalue = [3, 153]"] ;
554 -> 558 ;
559 [label="entropy = 0.075\nsamples = 110\nvalue = [1, 109]"] ;
558 -> 559 ;
560 [label="entropy = 0.258\nsamples = 46\nvalue = [2, 44]"] ;
558 -> 560 ;
561 [label="product_type <= 5.5\nentropy = 0.544\nsamples = 16\nvalue = [2, 14]"] ;
543 -> 561 ;
562 [label="product_type <= 4.5\nentropy = 0.764\nsamples = 9\nvalue = [2, 7]"] ;
561 -> 562 ;
563 [label="price <= 1481.0\nentropy = 0.544\nsamples = 8\nvalue = [1, 7]"] ;
562 -> 563 ;
564 [label="channel <= 4.5\nentropy = 1.0\nsamples = 2\nvalue = [1, 1]"] ;
563 -> 564 ;
565 [label="entropy = 0.0\nsamples = 1\nvalue = [0, 1]"] ;
564 -> 565 ;
566 [label="entropy = 0.0\nsamples = 1\nvalue = [1, 0]"] ;
564 -> 566 ;
567 [label="entropy = 0.0\nsamples = 6\nvalue = [0, 6]"] ;
563 -> 567 ;
568 [label="entropy = 0.0\nsamples = 1\nvalue = [1, 0]"] ;
562 -> 568 ;
569 [label="entropy = 0.0\nsamples = 7\nvalue = [0, 7]"] ;
561 -> 569 ;
570 [label="price <= 772.5\nentropy = 0.511\nsamples = 3232\nvalue = [367, 2865]"] ;
264 -> 570 ;
571 [label="price <= 455.5\nentropy = 0.563\nsamples = 2287\nvalue = [302, 1985]"] ;
570 -> 571 ;
572 [label="price <= 438.5\nentropy = 0.967\nsamples = 33\nvalue = [13, 20]"] ;
571 -> 572 ;
573 [label="entropy = 0.0\nsamples = 5\nvalue = [0, 5]"] ;
572 -> 573 ;
574 [label="gender <= 1.5\nentropy = 0.996\nsamples = 28\nvalue = [13, 15]"] ;
572 -> 574 ;
575 [label="entropy = 0.0\nsamples = 3\nvalue = [0, 3]"] ;
574 -> 575 ;
576 [label="price <= 448.0\nentropy = 0.999\nsamples = 25\nvalue = [13, 12]"] ;
574 -> 576 ;
577 [label="age_group <= 2.5\nentropy = 0.999\nsamples = 23\nvalue = [11, 12]"] ;
576 -> 577 ;
578 [label="channel <= 6.0\nentropy = 0.977\nsamples = 17\nvalue = [10, 7]"] ;
577 -> 578 ;
579 [label="age_group <= 1.5\nentropy = 0.989\nsamples = 16\nvalue = [9, 7]"] ;
578 -> 579 ;
580 [label="entropy = 0.863\nsamples = 7\nvalue = [5, 2]"] ;
579 -> 580 ;
581 [label="entropy = 0.991\nsamples = 9\nvalue = [4, 5]"] ;
579 -> 581 ;
582 [label="entropy = 0.0\nsamples = 1\nvalue = [1, 0]"] ;
578 -> 582 ;
583 [label="channel <= 4.5\nentropy = 0.65\nsamples = 6\nvalue = [1, 5]"] ;
577 -> 583 ;
584 [label="entropy = 0.0\nsamples = 3\nvalue = [0, 3]"] ;
583 -> 584 ;
585 [label="entropy = 0.918\nsamples = 3\nvalue = [1, 2]"] ;
583 -> 585 ;
586 [label="entropy = 0.0\nsamples = 2\nvalue = [2, 0]"] ;
576 -> 586 ;
587 [label="price <= 697.5\nentropy = 0.553\nsamples = 2254\nvalue = [289, 1965]"] ;
571 -> 587 ;
588 [label="price <= 689.0\nentropy = 0.37\nsamples = 351\nvalue = [25, 326]"] ;
587 -> 588 ;
589 [label="price <= 677.5\nentropy = 0.417\nsamples = 285\nvalue = [24, 261]"] ;
588 -> 589 ;
590 [label="price <= 613.5\nentropy = 0.368\nsamples = 269\nvalue = [19, 250]"] ;
589 -> 590 ;
591 [label="age_group <= 1.5\nentropy = 0.219\nsamples = 114\nvalue = [4, 110]"] ;
590 -> 591 ;
592 [label="entropy = 0.0\nsamples = 38\nvalue = [0, 38]"] ;
591 -> 592 ;
593 [label="price <= 559.5\nentropy = 0.297\nsamples = 76\nvalue = [4, 72]"] ;
591 -> 593 ;
594 [label="entropy = 0.575\nsamples = 22\nvalue = [3, 19]"] ;
593 -> 594 ;
595 [label="entropy = 0.133\nsamples = 54\nvalue = [1, 53]"] ;
593 -> 595 ;
596 [label="age_group <= 1.5\nentropy = 0.459\nsamples = 155\nvalue = [15, 140]"] ;
590 -> 596 ;
597 [label="channel <= 2.5\nentropy = 0.747\nsamples = 47\nvalue = [10, 37]"] ;
596 -> 597 ;
598 [label="entropy = 0.934\nsamples = 20\nvalue = [7, 13]"] ;
597 -> 598 ;
599 [label="entropy = 0.503\nsamples = 27\nvalue = [3, 24]"] ;
597 -> 599 ;
600 [label="price <= 660.0\nentropy = 0.27\nsamples = 108\nvalue = [5, 103]"] ;
596 -> 600 ;
601 [label="entropy = 0.337\nsamples = 80\nvalue = [5, 75]"] ;
600 -> 601 ;
602 [label="entropy = 0.0\nsamples = 28\nvalue = [0, 28]"] ;
600 -> 602 ;
603 [label="age_group <= 1.5\nentropy = 0.896\nsamples = 16\nvalue = [5, 11]"] ;
589 -> 603 ;
604 [label="entropy = 0.0\nsamples = 6\nvalue = [0, 6]"] ;
603 -> 604 ;
605 [label="price <= 683.0\nentropy = 1.0\nsamples = 10\nvalue = [5, 5]"] ;
603 -> 605 ;
606 [label="age_group <= 2.5\nentropy = 0.722\nsamples = 5\nvalue = [4, 1]"] ;
605 -> 606 ;
607 [label="entropy = 0.0\nsamples = 3\nvalue = [3, 0]"] ;
606 -> 607 ;
608 [label="entropy = 1.0\nsamples = 2\nvalue = [1, 1]"] ;
606 -> 608 ;
609 [label="channel <= 2.5\nentropy = 0.722\nsamples = 5\nvalue = [1, 4]"] ;
605 -> 609 ;
610 [label="entropy = 0.0\nsamples = 3\nvalue = [0, 3]"] ;
609 -> 610 ;
611 [label="entropy = 1.0\nsamples = 2\nvalue = [1, 1]"] ;
609 -> 611 ;
612 [label="channel <= 2.5\nentropy = 0.113\nsamples = 66\nvalue = [1, 65]"] ;
588 -> 612 ;
613 [label="age_group <= 1.5\nentropy = 0.183\nsamples = 36\nvalue = [1, 35]"] ;
612 -> 613 ;
614 [label="entropy = 0.0\nsamples = 12\nvalue = [0, 12]"] ;
613 -> 614 ;
615 [label="age_group <= 2.5\nentropy = 0.25\nsamples = 24\nvalue = [1, 23]"] ;
613 -> 615 ;
616 [label="channel <= 1.5\nentropy = 0.31\nsamples = 18\nvalue = [1, 17]"] ;
615 -> 616 ;
617 [label="entropy = 0.0\nsamples = 5\nvalue = [0, 5]"] ;
616 -> 617 ;
618 [label="entropy = 0.391\nsamples = 13\nvalue = [1, 12]"] ;
616 -> 618 ;
619 [label="entropy = 0.0\nsamples = 6\nvalue = [0, 6]"] ;
615 -> 619 ;
620 [label="entropy = 0.0\nsamples = 30\nvalue = [0, 30]"] ;
612 -> 620 ;
621 [label="channel <= 4.5\nentropy = 0.581\nsamples = 1903\nvalue = [264, 1639]"] ;
587 -> 621 ;
622 [label="gender <= 1.5\nentropy = 0.6\nsamples = 1272\nvalue = [186, 1086]"] ;
621 -> 622 ;
623 [label="price <= 743.5\nentropy = 0.74\nsamples = 110\nvalue = [23, 87]"] ;
622 -> 623 ;
624 [label="price <= 742.0\nentropy = 0.834\nsamples = 83\nvalue = [22, 61]"] ;
623 -> 624 ;
625 [label="channel <= 3.5\nentropy = 0.733\nsamples = 73\nvalue = [15, 58]"] ;
624 -> 625 ;
626 [label="entropy = 0.692\nsamples = 70\nvalue = [13, 57]"] ;
625 -> 626 ;
627 [label="entropy = 0.918\nsamples = 3\nvalue = [2, 1]"] ;
625 -> 627 ;
628 [label="channel <= 2.5\nentropy = 0.881\nsamples = 10\nvalue = [7, 3]"] ;
624 -> 628 ;
629 [label="entropy = 0.971\nsamples = 5\nvalue = [2, 3]"] ;
628 -> 629 ;
630 [label="entropy = 0.0\nsamples = 5\nvalue = [5, 0]"] ;
628 -> 630 ;
631 [label="price <= 766.0\nentropy = 0.229\nsamples = 27\nvalue = [1, 26]"] ;
623 -> 631 ;
632 [label="entropy = 0.0\nsamples = 18\nvalue = [0, 18]"] ;
631 -> 632 ;
633 [label="age_group <= 1.5\nentropy = 0.503\nsamples = 9\nvalue = [1, 8]"] ;
631 -> 633 ;
634 [label="entropy = 0.918\nsamples = 3\nvalue = [1, 2]"] ;
633 -> 634 ;
635 [label="entropy = 0.0\nsamples = 6\nvalue = [0, 6]"] ;
633 -> 635 ;
636 [label="price <= 749.0\nentropy = 0.585\nsamples = 1162\nvalue = [163, 999]"] ;
622 -> 636 ;
637 [label="price <= 743.5\nentropy = 0.601\nsamples = 963\nvalue = [141, 822]"] ;
636 -> 637 ;
638 [label="age_group <= 2.5\nentropy = 0.588\nsamples = 876\nvalue = [124, 752]"] ;
637 -> 638 ;
639 [label="entropy = 0.57\nsamples = 713\nvalue = [96, 617]"] ;
638 -> 639 ;
640 [label="entropy = 0.662\nsamples = 163\nvalue = [28, 135]"] ;
638 -> 640 ;
641 [label="age_group <= 2.5\nentropy = 0.713\nsamples = 87\nvalue = [17, 70]"] ;
637 -> 641 ;
642 [label="entropy = 0.764\nsamples = 72\nvalue = [16, 56]"] ;
641 -> 642 ;
643 [label="entropy = 0.353\nsamples = 15\nvalue = [1, 14]"] ;
641 -> 643 ;
644 [label="age_group <= 1.5\nentropy = 0.502\nsamples = 199\nvalue = [22, 177]"] ;
636 -> 644 ;
645 [label="channel <= 2.5\nentropy = 0.67\nsamples = 57\nvalue = [10, 47]"] ;
644 -> 645 ;
646 [label="entropy = 0.552\nsamples = 39\nvalue = [5, 34]"] ;
645 -> 646 ;
647 [label="entropy = 0.852\nsamples = 18\nvalue = [5, 13]"] ;
645 -> 647 ;
648 [label="channel <= 2.5\nentropy = 0.418\nsamples = 142\nvalue = [12, 130]"] ;
644 -> 648 ;
649 [label="entropy = 0.523\nsamples = 85\nvalue = [10, 75]"] ;
648 -> 649 ;
650 [label="entropy = 0.219\nsamples = 57\nvalue = [2, 55]"] ;
648 -> 650 ;
651 [label="price <= 743.5\nentropy = 0.54\nsamples = 631\nvalue = [78, 553]"] ;
621 -> 651 ;
652 [label="price <= 724.5\nentropy = 0.486\nsamples = 436\nvalue = [46, 390]"] ;
651 -> 652 ;
653 [label="price <= 722.5\nentropy = 0.635\nsamples = 81\nvalue = [13, 68]"] ;
652 -> 653 ;
654 [label="gender <= 1.5\nentropy = 0.544\nsamples = 56\nvalue = [7, 49]"] ;
653 -> 654 ;
655 [label="entropy = 0.0\nsamples = 7\nvalue = [0, 7]"] ;
654 -> 655 ;
656 [label="entropy = 0.592\nsamples = 49\nvalue = [7, 42]"] ;
654 -> 656 ;
657 [label="channel <= 6.5\nentropy = 0.795\nsamples = 25\nvalue = [6, 19]"] ;
653 -> 657 ;
658 [label="entropy = 0.684\nsamples = 22\nvalue = [4, 18]"] ;
657 -> 658 ;
659 [label="entropy = 0.918\nsamples = 3\nvalue = [2, 1]"] ;
657 -> 659 ;
660 [label="channel <= 5.5\nentropy = 0.446\nsamples = 355\nvalue = [33, 322]"] ;
652 -> 660 ;
661 [label="price <= 735.5\nentropy = 0.394\nsamples = 270\nvalue = [21.0, 249.0]"] ;
660 -> 661 ;
662 [label="entropy = 0.415\nsamples = 239\nvalue = [20, 219]"] ;
661 -> 662 ;
663 [label="entropy = 0.206\nsamples = 31\nvalue = [1, 30]"] ;
661 -> 663 ;
664 [label="price <= 730.0\nentropy = 0.587\nsamples = 85\nvalue = [12, 73]"] ;
660 -> 664 ;
665 [label="entropy = 0.297\nsamples = 19\nvalue = [1, 18]"] ;
664 -> 665 ;
666 [label="entropy = 0.65\nsamples = 66\nvalue = [11, 55]"] ;
664 -> 666 ;
667 [label="age_group <= 2.5\nentropy = 0.644\nsamples = 195\nvalue = [32, 163]"] ;
651 -> 667 ;
668 [label="price <= 766.0\nentropy = 0.675\nsamples = 163\nvalue = [29, 134]"] ;
667 -> 668 ;
669 [label="age_group <= 1.5\nentropy = 0.775\nsamples = 57\nvalue = [13, 44]"] ;
668 -> 669 ;
670 [label="entropy = 0.559\nsamples = 23\nvalue = [3, 20]"] ;
669 -> 670 ;
671 [label="entropy = 0.874\nsamples = 34\nvalue = [10, 24]"] ;
669 -> 671 ;
672 [label="age_group <= 1.5\nentropy = 0.612\nsamples = 106\nvalue = [16, 90]"] ;
668 -> 672 ;
673 [label="entropy = 0.769\nsamples = 40\nvalue = [9, 31]"] ;
672 -> 673 ;
674 [label="entropy = 0.488\nsamples = 66\nvalue = [7, 59]"] ;
672 -> 674 ;
675 [label="channel <= 5.5\nentropy = 0.449\nsamples = 32\nvalue = [3, 29]"] ;
667 -> 675 ;
676 [label="gender <= 1.5\nentropy = 0.529\nsamples = 25\nvalue = [3, 22]"] ;
675 -> 676 ;
677 [label="entropy = 0.0\nsamples = 4\nvalue = [0, 4]"] ;
676 -> 677 ;
678 [label="entropy = 0.592\nsamples = 21\nvalue = [3, 18]"] ;
676 -> 678 ;
679 [label="entropy = 0.0\nsamples = 7\nvalue = [0, 7]"] ;
675 -> 679 ;
680 [label="price <= 826.5\nentropy = 0.361\nsamples = 945\nvalue = [65, 880]"] ;
570 -> 680 ;
681 [label="price <= 812.0\nentropy = 0.176\nsamples = 265\nvalue = [7, 258]"] ;
680 -> 681 ;
682 [label="gender <= 1.5\nentropy = 0.209\nsamples = 213\nvalue = [7.0, 206.0]"] ;
681 -> 682 ;
683 [label="entropy = 0.0\nsamples = 21\nvalue = [0, 21]"] ;
682 -> 683 ;
684 [label="price <= 781.0\nentropy = 0.226\nsamples = 192\nvalue = [7, 185]"] ;
682 -> 684 ;
685 [label="channel <= 5.5\nentropy = 0.414\nsamples = 12\nvalue = [1, 11]"] ;
684 -> 685 ;
686 [label="entropy = 0.0\nsamples = 11\nvalue = [0, 11]"] ;
685 -> 686 ;
687 [label="entropy = 0.0\nsamples = 1\nvalue = [1, 0]"] ;
685 -> 687 ;
688 [label="age_group <= 2.5\nentropy = 0.211\nsamples = 180\nvalue = [6, 174]"] ;
684 -> 688 ;
689 [label="channel <= 3.5\nentropy = 0.253\nsamples = 142\nvalue = [6, 136]"] ;
688 -> 689 ;
690 [label="age_group <= 1.5\nentropy = 0.32\nsamples = 86\nvalue = [5, 81]"] ;
689 -> 690 ;
691 [label="entropy = 0.201\nsamples = 32\nvalue = [1, 31]"] ;
690 -> 691 ;
692 [label="entropy = 0.381\nsamples = 54\nvalue = [4, 50]"] ;
690 -> 692 ;
693 [label="price <= 799.5\nentropy = 0.129\nsamples = 56\nvalue = [1, 55]"] ;
689 -> 693 ;
694 [label="entropy = 0.0\nsamples = 45\nvalue = [0, 45]"] ;
693 -> 694 ;
695 [label="entropy = 0.439\nsamples = 11\nvalue = [1, 10]"] ;
693 -> 695 ;
696 [label="entropy = 0.0\nsamples = 38\nvalue = [0, 38]"] ;
688 -> 696 ;
697 [label="entropy = 0.0\nsamples = 52\nvalue = [0, 52]"] ;
681 -> 697 ;
698 [label="price <= 1038.5\nentropy = 0.421\nsamples = 680\nvalue = [58, 622]"] ;
680 -> 698 ;
699 [label="price <= 1006.0\nentropy = 0.373\nsamples = 529\nvalue = [38, 491]"] ;
698 -> 699 ;
700 [label="gender <= 1.5\nentropy = 0.391\nsamples = 494\nvalue = [38, 456]"] ;
699 -> 700 ;
701 [label="channel <= 2.5\nentropy = 0.643\nsamples = 55\nvalue = [9, 46]"] ;
700 -> 701 ;
702 [label="price <= 892.0\nentropy = 0.871\nsamples = 24\nvalue = [7, 17]"] ;
701 -> 702 ;
703 [label="price <= 832.5\nentropy = 0.567\nsamples = 15\nvalue = [2, 13]"] ;
702 -> 703 ;
704 [label="entropy = 0.0\nsamples = 1\nvalue = [1, 0]"] ;
703 -> 704 ;
705 [label="entropy = 0.371\nsamples = 14\nvalue = [1, 13]"] ;
703 -> 705 ;
706 [label="age_group <= 2.5\nentropy = 0.991\nsamples = 9\nvalue = [5, 4]"] ;
702 -> 706 ;
707 [label="entropy = 0.954\nsamples = 8\nvalue = [5, 3]"] ;
706 -> 707 ;
708 [label="entropy = 0.0\nsamples = 1\nvalue = [0, 1]"] ;
706 -> 708 ;
709 [label="price <= 972.5\nentropy = 0.345\nsamples = 31\nvalue = [2, 29]"] ;
701 -> 709 ;
710 [label="price <= 850.5\nentropy = 0.222\nsamples = 28\nvalue = [1, 27]"] ;
709 -> 710 ;
711 [label="entropy = 0.439\nsamples = 11\nvalue = [1, 10]"] ;
710 -> 711 ;
712 [label="entropy = 0.0\nsamples = 17\nvalue = [0, 17]"] ;
710 -> 712 ;
713 [label="channel <= 4.0\nentropy = 0.918\nsamples = 3\nvalue = [1, 2]"] ;
709 -> 713 ;
714 [label="entropy = 0.0\nsamples = 1\nvalue = [1, 0]"] ;
713 -> 714 ;
715 [label="entropy = 0.0\nsamples = 2\nvalue = [0, 2]"] ;
713 -> 715 ;
716 [label="channel <= 2.5\nentropy = 0.351\nsamples = 439\nvalue = [29, 410]"] ;
700 -> 716 ;
717 [label="price <= 998.5\nentropy = 0.241\nsamples = 176\nvalue = [7, 169]"] ;
716 -> 717 ;
718 [label="age_group <= 1.5\nentropy = 0.191\nsamples = 170\nvalue = [5, 165]"] ;
717 -> 718 ;
719 [label="entropy = 0.0\nsamples = 52\nvalue = [0, 52]"] ;
718 -> 719 ;
720 [label="entropy = 0.253\nsamples = 118\nvalue = [5, 113]"] ;
718 -> 720 ;
721 [label="age_group <= 2.5\nentropy = 0.918\nsamples = 6\nvalue = [2, 4]"] ;
717 -> 721 ;
722 [label="entropy = 0.811\nsamples = 4\nvalue = [1, 3]"] ;
721 -> 722 ;
723 [label="entropy = 1.0\nsamples = 2\nvalue = [1, 1]"] ;
721 -> 723 ;
724 [label="channel <= 6.5\nentropy = 0.415\nsamples = 263\nvalue = [22, 241]"] ;
716 -> 724 ;
725 [label="age_group <= 1.5\nentropy = 0.435\nsamples = 246\nvalue = [22, 224]"] ;
724 -> 725 ;
726 [label="entropy = 0.562\nsamples = 76\nvalue = [10, 66]"] ;
725 -> 726 ;
727 [label="entropy = 0.368\nsamples = 170\nvalue = [12, 158]"] ;
725 -> 727 ;
728 [label="entropy = 0.0\nsamples = 17\nvalue = [0, 17]"] ;
724 -> 728 ;
729 [label="entropy = 0.0\nsamples = 35\nvalue = [0, 35]"] ;
699 -> 729 ;
730 [label="price <= 1067.5\nentropy = 0.564\nsamples = 151\nvalue = [20, 131]"] ;
698 -> 730 ;
731 [label="channel <= 2.5\nentropy = 0.503\nsamples = 9\nvalue = [8, 1]"] ;
730 -> 731 ;
732 [label="age_group <= 2.5\nentropy = 0.722\nsamples = 5\nvalue = [4, 1]"] ;
731 -> 732 ;
733 [label="entropy = 0.918\nsamples = 3\nvalue = [2, 1]"] ;
732 -> 733 ;
734 [label="entropy = 0.0\nsamples = 2\nvalue = [2, 0]"] ;
732 -> 734 ;
735 [label="entropy = 0.0\nsamples = 4\nvalue = [4, 0]"] ;
731 -> 735 ;
736 [label="gender <= 1.5\nentropy = 0.418\nsamples = 142\nvalue = [12, 130]"] ;
730 -> 736 ;
737 [label="entropy = 0.0\nsamples = 14\nvalue = [0, 14]"] ;
736 -> 737 ;
738 [label="price <= 1414.5\nentropy = 0.449\nsamples = 128\nvalue = [12, 116]"] ;
736 -> 738 ;
739 [label="price <= 1388.0\nentropy = 0.474\nsamples = 118\nvalue = [12, 106]"] ;
738 -> 739 ;
740 [label="price <= 1271.5\nentropy = 0.452\nsamples = 116\nvalue = [11, 105]"] ;
739 -> 740 ;
741 [label="entropy = 0.469\nsamples = 110\nvalue = [11, 99]"] ;
740 -> 741 ;
742 [label="entropy = 0.0\nsamples = 6\nvalue = [0, 6]"] ;
740 -> 742 ;
743 [label="age_group <= 1.5\nentropy = 1.0\nsamples = 2\nvalue = [1, 1]"] ;
739 -> 743 ;
744 [label="entropy = 0.0\nsamples = 1\nvalue = [0, 1]"] ;
743 -> 744 ;
745 [label="entropy = 0.0\nsamples = 1\nvalue = [1, 0]"] ;
743 -> 745 ;
746 [label="entropy = 0.0\nsamples = 10\nvalue = [0, 10]"] ;
738 -> 746 ;
}